tree
version=v4
num_class=1
num_tree_per_iteration=1
label_index=0
max_feature_idx=33
objective=binary sigmoid:1
feature_names=user_historical_aov user_segment_enc price_sensitivity dessert_affinity beverage_affinity total_orders_lifetime user_item_affinity user_cuisine_affinity affinity_match cart_value n_items_in_cart embedding_variance is_chaos_cart anchor_cuisine_enc candidate_price price_ratio aov_headroom price_match budget_safe candidate_category_enc candidate_is_veg item_popularity_score hour_of_day day_of_week meal_time_enc city_tier_enc avg_rating is_chain is_beverage is_dessert is_extension user_ordered_this_before cart_aov_utilization user_category_accept_rate
feature_infos=[128.81999999999999:929.62] [0:2] [0.10000000000000001:0.90000000000000002] [0.059999999999999998:1] [0.20000000000000001:0.80000000000000004] [5:400] [0:0.80000000000000004] [0:0.54800000000000004] [0.059999999999999998:1] [29:1148] [1:2] [0:0.5] [0:1] [0:8] [29:839] [0.041000000000000002:13.414] [-975.49000000000001:878.17999999999995] [0:1] [0:1] [0:4] [0:1] [0:1] [7:23] [0:6] [0:4] [0:1] [3.2000000000000002:4.7999999999999998] [0:1] [0:1] [0:1] [0:1] [0:1] [0.040126745167494565:2] [0:1]
tree_sizes=5301 5373 5731 5584 5145 6199 6005 5961 5899 5964 5372

Tree=0
num_leaves=50
num_cat=0
split_feature=33 6 33 6 33 33 33 10 10 6 33 33 33 33 33 11 33 21 14 21 33 21 33 21 21 16 14 7 15 33 21 21 33 13 10 32 7 8 15 14 11 8 13 19 7 0 25 11 8
split_gain=1633.77 579.578 397.578 376.818 161.709 160.781 87.3062 58.9839 56.5196 51.1361 42.7397 40.2086 34.7246 25.7617 22.6151 15.7209 14.9799 14.5151 13.7623 12.6801 12.0152 11.8896 11.5439 10.407 9.66698 9.13675 8.53426 8.2052 7.60957 7.5619 7.43825 7.15727 7.09275 6.59351 6.18661 5.9849 5.90077 5.8292 5.48108 5.39838 5.31239 5.23251 5.06892 3.82621 3.70347 3.48903 2.27487 3.84662 1.03945
threshold=0.45227272727272733 1.0000000180025095e-35 0.65833333333333344 1.0000000180025095e-35 0.20714285714285716 0.21825396825396828 0.88194444444444453 1.5000000000000002 1.5000000000000002 1.0000000180025095e-35 0.38675213675213682 0.58114035087719318 0.10555555555555557 0.70294117647058829 0.28991596638655465 0.25000000000000006 0.11805555555555557 0.22050000000000003 54.000000000000007 0.42950000000000005 0.41421568627450983 0.37450000000000006 0.51787994891443179 0.39650000000000007 0.17850000000000002 235.61500000000004 464.00000000000006 0.086500000000000007 0.84350000000000003 0.34057971014492755 0.14950000000000002 0.46050000000000008 0.2817460317460318 4.5000000000000009 1.5000000000000002 0.20438123184666826 0.062500000000000014 0.49500000000000005 0.55350000000000021 164.00000000000003 0.12500000000000003 0.31500000000000006 1.5000000000000002 1.0000000180025095e-35 0.31550000000000006 190.92500000000004 1.0000000180025095e-35 0.18500000000000003 0.35500000000000004
decision_type=2 2 2 2 2 2 2 2 2 2 2 2 2 2 2 2 2 2 2 2 2 2 2 2 2 2 2 2 2 2 2 2 2 2 2 2 2 2 2 2 2 2 2 2 2 2 2 2 2
left_child=1 5 3 11 12 16 9 17 14 13 23 18 -3 33 42 45 -1 25 38 -20 -16 28 -19 32 -17 -5 29 35 -12 -10 36 -29 -7 -4 40 -13 -9 -23 -2 -15 -11 -25 -6 -32 -36 -14 48 -48 -18
right_child=2 4 6 7 8 10 -8 30 26 34 21 27 15 39 20 24 46 22 19 -21 -22 37 -24 41 -26 -27 -28 31 -30 -31 43 -33 -34 -35 44 -37 -38 -39 -40 -41 -42 -43 -44 -45 -46 -47 47 -49 -50
leaf_value=0.1005642386752429 0.23388021723585359 0.10456647561807834 0.2226024562740197 0.216003992646394 0.20365569399884048 0.14183662596807811 0.30020232472317665 0.29148709494028396 0.22959679937095639 0.27318509026328291 0.17984363221497945 0.24674619296946204 0.19632603334582271 0.26219617955093333 0.21021607819326668 0.16776372577681642 0.13788404287269845 0.23305741016026812 0.19357129216555641 0.2148268355600626 0.23527523513050549 0.22604813945618629 0.25586527729525871 0.21358270186145628 0.24946138841817225 0.24188238469984391 0.29894302581361398 0.21958195278749804 0.16403749909143164 0.24895958858596526 0.2631774132554654 0.24653893824048467 0.15558402568595311 0.2413623937447163 0.2851761461024569 0.19249331071899525 0.25382282280789198 0.18840992796020678 0.188179941048712 0.24530466969451789 0.2532151149266183 0.16847939339149887 0.17350215903311347 0.27867887025267507 0.262565918617998 0.1507393309115235 0.12630127658787149 0.15597921132919595 0.11819203684767748
leaf_weight=93.708023205399513 34.367850199341774 28.681083619594574 94.449775367975235 95.933279693126678 21.51081271469593 131.53738349676132 139.94390800595284 11.868034601211546 84.806997254490852 97.416784018278122 174.06450748443604 5.6867665797471991 5.1922651380300513 159.97121639549732 175.05351036787033 5.934017300605773 13.104288205504416 103.84530276060104 638.40136125683784 78.378478512167931 65.521441027522087 14.093291088938711 123.13085898756981 6.9230201840400687 8.9010259509086591 53.406155705451965 6.6757694631814948 230.93217328190804 141.92191377282143 130.7956313341856 68.982951119542122 27.692080736160278 394.61215049028397 95.686028972268105 111.26282438635826 39.560115337371826 119.91659961640835 36.345855966210365 7.9120230674743643 71.949959769845009 55.631412193179131 62.5544323772192 42.279873266816139 121.40010394155979 24.972322806715965 34.862351641058922 36.840357407927513 18.543804064393044 67.746697515249252
leaf_count=379 139 116 382 388 87 532 566 48 343 394 704 23 21 647 708 24 53 420 2582 317 265 57 498 28 36 216 27 934 574 529 279 112 1596 387 450 160 485 147 32 291 225 253 171 491 101 141 149 75 274
internal_value=0.210742 0.174122 0.236004 0.22244 0.213744 0.153836 0.26406 0.250967 0.224008 0.256931 0.162833 0.203697 0.149183 0.245791 0.210024 0.172737 0.116251 0.237486 0.197542 0.195903 0.217028 0.176321 0.245467 0.15455 0.21638 0.225307 0.243169 0.219055 0.172716 0.241379 0.266685 0.2225 0.152125 0.232081 0.27315 0.199487 0.257311 0.199035 0.225178 0.256995 0.265991 0.173043 0.183565 0.273119 0.28111 0.156474 0.127151 0.136032 0.121228
internal_weight=4414.91 1802.21 2612.7 1761.41 610.215 1192 851.284 698.483 526.644 711.34 962.053 1062.93 83.5707 422.057 304.366 54.8897 229.943 376.316 759.06 716.78 240.575 366.426 226.976 595.627 14.835 149.339 222.278 303.871 315.986 215.603 322.168 258.624 526.15 190.136 289.283 45.2469 131.785 50.4391 42.2799 231.921 153.048 69.4775 63.7907 190.383 136.235 40.0546 136.235 55.3842 80.851
internal_count=17856 7289 10567 7124 2468 4821 3443 2825 2130 2877 3891 4299 338 1707 1231 222 930 1522 3070 2899 973 1482 918 2409 60 604 899 1229 1278 872 1303 1046 2128 769 1170 183 533 204 171 938 619 281 258 770 551 162 551 224 327
is_linear=0
shrinkage=1


Tree=1
num_leaves=49
num_cat=0
split_feature=33 6 33 6 33 33 33 10 10 6 33 33 33 33 33 11 21 33 14 21 33 21 33 21 21 14 7 33 21 15 33 21 0 10 8 7 32 30 8 7 15 14 11 26 19 7 3 15
split_gain=1473.98 518.788 362.923 342.032 145.459 143.023 80.8371 54.0709 51.3059 47.0201 38.6353 36.2549 30.8277 23.5425 20.3761 14.0798 13.2154 12.5111 12.4023 11.4149 10.8854 10.6421 10.5462 9.43761 8.74419 7.87259 7.4104 6.89307 6.85107 6.78769 6.66548 6.5045 6.08562 5.72129 5.68806 5.45298 5.41592 5.27946 5.25602 5.02382 4.96229 4.94769 4.88885 4.11244 3.53145 3.42299 2.22004 1.8669
threshold=0.45227272727272733 1.0000000180025095e-35 0.65833333333333344 1.0000000180025095e-35 0.20714285714285716 0.20714285714285716 0.88194444444444453 1.5000000000000002 1.5000000000000002 1.0000000180025095e-35 0.38675213675213682 0.58114035087719318 0.10555555555555557 0.70294117647058829 0.28991596638655465 0.25000000000000006 0.22050000000000003 0.11805555555555557 54.000000000000007 0.42950000000000005 0.41421568627450983 0.37450000000000006 0.51787994891443179 0.39650000000000007 0.17850000000000002 464.00000000000006 0.086500000000000007 0.34057971014492755 0.14950000000000002 0.84350000000000003 0.2817460317460318 0.46050000000000008 472.35500000000008 1.5000000000000002 0.31500000000000006 0.062500000000000014 0.20438123184666826 1.0000000180025095e-35 0.49500000000000005 0.27450000000000008 0.55350000000000021 164.00000000000003 0.12500000000000003 3.9500000000000006 1.0000000180025095e-35 0.31550000000000006 0.80500000000000016 0.18950000000000003
decision_type=2 2 2 2 2 2 2 2 2 2 2 2 2 2 2 2 2 2 2 2 2 2 2 2 2 2 2 2 2 2 2 2 2 2 2 2 2 2 2 2 2 2 2 2 2 2 2 2
left_child=1 5 3 11 12 17 9 16 14 13 23 18 -3 32 39 43 37 -1 40 -20 -16 29 -18 30 -17 27 36 -10 35 -12 -7 -28 -4 42 -25 -9 -13 -5 -23 -6 -2 -15 -11 -14 -30 -35 47 -19
right_child=2 4 6 7 8 10 -8 28 25 33 21 26 15 41 20 24 22 46 19 -21 -22 38 -24 34 -26 -27 31 -29 44 -31 -32 -33 -34 45 -36 -37 -38 -39 -40 -41 -42 -43 -44 -45 -46 -47 -48 -49
leaf_value=-0.10354015627382736 0.022265726369167026 -0.099806902429087796 0.015102430842907811 0.017169223310561952 -0.032569111629897916 -0.065039978519301836 0.086212214045860699 0.077758555576359883 0.018174309284073001 0.060008037819888116 -0.029043053860040399 0.034601034392341766 -0.069078470617263424 0.049412163754302497 -0.00027741066444527307 -0.040477417806086623 0.021477681825838729 -0.047727318605431814 -0.016061951394679422 0.0041050047878952124 0.023597012983592708 0.014793956088595687 0.04332421578658141 0.006026214555320427 0.037195102274063994 0.085034540556784666 0.0086289605011353378 0.036695376908004666 0.050358710957461653 -0.04395247618368528 -0.051910538041571232 0.034379489335705719 0.035567763243998032 0.071609810840627369 -0.040290995180783967 0.041362384905467023 -0.017084636276155637 -0.014521216372068664 -0.020949113280758325 0.0019846940995687863 -0.021177991011276365 0.033193107066075582 0.040780733080004308 -0.035861588840615834 0.065317602413595383 0.049775833695642993 -0.052995675478457398 -0.082415586545752012
leaf_weight=94.510849267244339 34.279092505574226 28.920871138572693 139.60758921504021 134.78183308243752 51.065896928310394 136.56585609912872 138.35923299193382 11.748672008514403 84.629785254597664 96.68485102057457 174.58451747894287 5.6633600592613211 18.141826212406158 159.00159658491611 175.05886977910995 5.9579801559448233 103.58702123165131 5.2272873520851126 639.49085211753845 78.342630594968796 65.3415846824646 14.069503739476202 122.4843682050705 7.1695876419544211 8.8614199161529523 6.6014113873243323 230.70784804224968 130.22173820436001 68.556046038866043 142.5389806330204 396.59511476755142 27.578803777694702 50.073567241430283 110.24337038397789 63.301528692245483 119.31786634027958 39.631738662719727 14.313250929117201 36.425779670476913 12.89001142978668 7.9295926094055167 71.666460871696472 55.357890576124191 22.108422622084618 120.39726464450359 24.819762215018272 9.4597104191780073 117.52020893990993
leaf_count=379 139 116 566 546 206 549 566 48 343 394 704 23 73 647 708 24 420 21 2582 317 265 57 498 29 36 27 934 529 279 574 1596 112 203 450 255 485 160 58 147 52 32 291 225 89 491 101 38 472
internal_value=0.000228655 -0.0344571 0.024305 0.0113572 0.0030776 -0.0535662 0.0512187 0.0386289 0.0128481 0.0443566 -0.0452003 -0.00646485 -0.0579723 0.0336621 -0.000459874 -0.0357703 0.0257133 -0.0893476 -0.0123012 -0.0138537 0.00619805 -0.0323706 0.0333501 -0.0529988 0.00557057 0.0311527 0.00812966 0.0294351 0.0537416 -0.035772 -0.0552945 0.0114101 0.0205473 0.0599798 -0.0355061 0.0447198 -0.0104501 0.0140857 -0.0108816 -0.0255347 0.0139552 0.0444113 0.0530718 -0.0510913 0.0599462 0.0676743 -0.0790933 -0.0810191
internal_weight=4412.39 1807.77 2604.62 1758.81 609.8 1197.97 845.814 695.186 525.809 707.455 971.251 1063.62 83.9905 420.349 304.356 55.0696 375.166 226.718 760.042 717.833 240.4 367.619 226.071 603.632 14.8194 221.453 303.582 214.852 320.02 317.123 533.161 258.287 189.681 287.106 70.4711 131.067 45.2951 149.095 50.4953 63.9559 42.2087 230.668 152.043 40.2502 188.953 135.063 132.207 122.747
internal_count=17856 7289 10567 7124 2468 4821 3443 2825 2130 2877 3911 4299 338 1707 1231 222 1522 910 3070 2899 973 1482 918 2429 60 899 1229 872 1303 1278 2145 1046 769 1170 284 533 183 604 204 258 171 938 619 162 770 551 531 493
is_linear=0
shrinkage=0.05


Tree=2
num_leaves=53
num_cat=0
split_feature=6 30 11 19 4 13 8 4 7 11 8 0 15 16 4 15 8 0 2 14 24 15 27 16 7 7 14 0 2 0 9 26 3 7 0 13 26 17 8 0 5 4 6 0 32 11 4 3 16 32 9 4
split_gain=893.803 181.217 91.9829 57.9937 32.4254 28.5518 17.2571 14.107 12.3648 10.9259 10.0342 9.69736 9.0812 8.97561 8.8711 8.83946 9.73084 8.55086 8.64525 8.37456 7.75968 6.99594 6.52336 6.40493 6.19315 6.1178 7.23697 7.15615 7.25922 6.00451 5.99468 5.42011 4.75137 4.62614 4.55215 4.54138 4.34357 4.07656 3.97608 3.69686 3.69269 3.60312 3.45868 3.40192 3.62833 2.56268 2.30386 2.06353 1.76718 1.67593 1.34276 0.798464
threshold=1.0000000180025095e-35 1.0000000180025095e-35 0.25000000000000006 1.0000000180025095e-35 0.43500000000000005 4.5000000000000009 0.40500000000000008 0.25500000000000006 0.042500000000000003 0.015000000000000001 0.62500000000000011 154.02000000000001 3.6595000000000004 -138.785 0.77500000000000013 0.52050000000000007 0.25500000000000006 397.05500000000001 0.84500000000000008 394.00000000000006 2.5000000000000004 0.16550000000000004 1.0000000180025095e-35 -259.78499999999991 0.080500000000000016 0.078500000000000014 104.00000000000001 368.32000000000005 0.56500000000000006 206.43500000000003 123.50000000000001 4.4500000000000011 0.43500000000000005 0.21550000000000002 362.74000000000007 7.5000000000000009 3.2500000000000004 1.0000000180025095e-35 0.51500000000000012 172.89000000000001 66.500000000000014 0.57500000000000007 0.35000000000000003 219.19000000000003 0.59848246045940867 0.44500000000000006 0.41500000000000004 0.69500000000000006 -110.60499999999999 0.42902121647858921 158.50000000000003 0.43500000000000005
decision_type=2 2 2 2 2 2 2 2 2 2 2 2 2 2 2 2 2 2 2 2 2 2 2 2 2 2 2 2 2 2 2 2 2 2 2 2 2 2 2 2 2 2 2 2 2 2 2 2 2 2 2 2
left_child=1 3 8 4 7 17 24 13 43 32 23 20 -9 -1 31 16 -11 18 21 -17 -6 -3 -13 -8 51 38 27 39 -29 -12 -28 35 33 -10 -16 -7 -26 -34 45 -27 -19 -42 -32 -2 49 47 -47 -4 -33 -45 -36 -5
right_child=2 5 25 6 11 14 10 12 9 15 29 22 -14 -15 34 19 -18 40 -20 -21 -22 -23 -24 -25 36 26 30 28 -30 -31 42 48 37 -35 50 -37 -38 -39 -40 -41 41 -43 -44 44 -46 46 -48 -49 -50 -51 -52 -53
leaf_value=-0.087141624377086016 0.01343550064279006 -0.0080705183428196759 0.076765299571063275 -0.094625680245009947 0.0070534327442610669 0.034233534064439658 -0.043707678216269592 -0.020079645576554672 0.044151730122361052 -0.027080366738939293 -0.0027414371413458307 -0.0060122971924350998 0.044336473931900135 -0.036322562911822044 -0.049300029168929761 0.014110059492357966 0.027964507782951162 -0.022282217999334678 0.025818112734887946 0.036310964497340191 -0.064280697447892721 -0.057043626964129693 0.0073334799752849001 -0.026933731037134496 0.0041156923521458227 0.016443022679679894 0.0014203504648600731 0.032618473220932274 -0.0042396116472657105 -0.020922038076058511 0.047166559392536417 0.015846702197338455 0.062614674085248415 -0.0068728501245463444 -0.0087918958223329718 0.018452884915578709 -0.041418213147332281 0.032710380009000249 0.016951907679124061 0.047822258435744558 0.042994193130333064 -0.0018931609636255184 0.06682974513596239 0.053072741658129044 0.081232609643881751 0.020079475582727713 0.062015703749770779 0.043999980232404479 0.049890090436875499 0.015976768623824227 0.027276142233691111 -0.061529601576967845
leaf_weight=10.438878819346426 5.3977696895599356 12.57355470955372 34.509804949164391 5.4746994674205762 5.4360780268907556 84.936723992228508 61.575182065367699 257.9628067612648 8.1015271395444888 8.1164513975381833 56.994245767593384 443.33336082100868 5.4515933692455283 58.605000570416451 4.92994201183319 660.71942783892155 260.14163638651371 5.6746295690536526 6.3920848816633216 45.712449833750725 11.665131151676178 18.304463744163513 115.00964020192623 1025.6061066389084 5.2007789909839621 11.471017345786093 7.0757340490818015 42.69362086057663 19.062604740262032 237.52478201687336 325.51877227425575 4.901367023587226 24.019523769617081 9.3400053530931455 4.9436609447002393 104.37396928668022 151.57472179830074 24.514550521969795 5.1191965937614432 74.848784729838371 10.053864762187006 7.6066037416458121 26.082334622740746 11.300511166453367 10.983017235994337 6.100909784436225 8.7531911730766279 7.0745342820882788 35.735427230596542 4.9059845358133307 4.9260943681001663 6.7095911651849747
leaf_count=42 22 51 142 22 22 346 248 1040 33 33 230 1791 22 236 20 2687 1061 23 26 186 47 74 465 4134 21 47 29 175 78 958 1333 20 98 38 20 425 610 100 21 307 41 31 107 46 45 25 36 29 146 20 20 27
internal_value=0.000223326 -0.0171318 0.0294466 -0.0216448 -0.0115974 0.0191833 -0.0275231 -0.02403 0.0208222 0.0198607 -0.0256657 -0.004403 -0.0187112 -0.0441932 0.0267955 0.0185145 0.026271 -0.011469 -0.0263453 0.0155587 -0.0414054 -0.0373536 -0.00325351 -0.0278923 -0.0426582 0.0457186 0.0438537 0.0343787 0.021172 -0.0174229 0.0477407 0.0292159 0.0396155 0.0166594 -0.0104181 0.0255738 -0.0398742 0.0477111 0.0608933 0.043734 0.0120885 0.0234773 0.048658 0.0512188 0.0584598 0.0647535 0.0453754 0.07143 0.0459557 0.0423166 0.00880153 -0.0774567
internal_weight=4405.48 2763.91 1641.56 2458.56 907.902 305.352 1550.66 332.458 1073.25 1040.67 1381.7 575.444 263.414 69.0439 244.747 974.69 268.258 60.6052 37.2701 706.432 17.1012 30.878 558.343 1087.18 168.96 568.311 506.753 148.076 61.7562 294.519 358.677 229.947 65.9756 17.4415 14.7997 189.311 156.776 48.5341 61.5576 86.3198 23.3351 17.6605 351.601 32.5873 27.1895 56.4384 14.8541 41.5843 40.6368 16.2065 9.86976 12.1843
internal_count=17856 11158 6698 9915 3665 1243 6250 1340 4369 4236 5570 2325 1062 278 997 3967 1094 246 151 2873 69 125 2256 4382 680 2329 2076 607 253 1188 1469 937 269 71 60 771 631 198 253 354 95 72 1440 133 111 232 61 171 166 66 40 49
is_linear=0
shrinkage=0.05


Tree=3
num_leaves=51
num_cat=0
split_feature=33 31 33 31 33 33 33 33 11 33 11 33 33 33 11 31 33 21 14 21 21 21 4 21 19 21 11 33 15 23 7 18 16 22 2 7 24 33 21 14 2 26 7 11 21 11 25 11 4 15
split_gain=1307.48 421.076 327.212 309.917 130.92 128.238 67.0097 42.5161 36.4592 34.1394 31.715 27.908 25.2705 14.0443 13.1405 11.7931 11.3639 10.6813 10.5366 9.93591 9.45109 8.52652 8.52568 8.06052 7.93007 7.65365 6.70305 6.66034 6.61247 5.96328 8.96119 8.80403 5.57399 4.92218 4.78021 4.77997 4.70624 4.65829 4.43129 4.70033 3.83489 3.81069 3.5536 2.51495 2.35685 3.86368 1.97763 3.90354 1.68929 1.53623
threshold=0.45227272727272733 1.0000000180025095e-35 0.70294117647058829 1.0000000180025095e-35 0.20714285714285716 0.20714285714285716 0.58114035087719318 0.88194444444444453 0.25000000000000006 0.38675213675213682 0.25000000000000006 1.0000000180025095e-35 0.34057971014492755 0.58957219251336912 0.19500000000000003 1.0000000180025095e-35 0.08846153846153848 0.47450000000000003 64.000000000000014 0.42950000000000005 0.37450000000000006 0.35850000000000004 0.62500000000000011 0.17850000000000002 2.5000000000000004 0.17850000000000002 0.14500000000000005 0.2817460317460318 2.3935000000000004 4.5000000000000009 0.10750000000000001 1.0000000180025095e-35 -188.15999999999997 15.500000000000002 0.41500000000000004 0.091500000000000012 2.5000000000000004 0.77350427350427364 0.15750000000000003 134.00000000000003 0.8650000000000001 3.9500000000000006 0.16150000000000003 0.14500000000000005 0.35850000000000004 0.12500000000000003 1.0000000180025095e-35 0.18500000000000003 0.27500000000000008 3.1610000000000005
decision_type=2 2 2 2 2 2 2 2 2 2 2 2 2 2 2 2 2 2 2 2 2 2 2 2 2 2 2 2 2 2 2 2 2 2 2 2 2 2 2 2 2 2 2 2 2 2 2 2 2 2
left_child=1 5 3 6 11 16 18 15 12 21 13 -3 17 22 41 37 -1 -6 33 -20 28 27 -5 -16 -15 26 -8 -7 -11 31 -31 -10 -14 -2 -23 -27 -22 40 42 -40 -4 -13 -12 -39 48 -46 49 -48 -17 -18
right_child=2 4 7 10 8 9 25 -9 29 20 38 14 32 24 23 44 46 -19 19 -21 36 34 -24 -25 -26 35 -28 -29 -30 30 -32 -33 -34 -35 -36 -37 -38 43 39 -41 -42 -43 -44 -45 45 -47 47 -49 -50 -51
leaf_value=-0.098426827607855746 0.021612927950131196 -0.10098005577992515 0.039137931945438159 0.029691264116120636 -0.023589195332627735 -0.061036455248263913 0.00093200528400463011 0.082633484881942262 0.039977682388052924 -0.030533773155893468 0.057207574463449651 -0.067771494515848685 0.045381204088684714 0.03514789300713627 -0.042796675573236576 0.036312523158729453 -0.081800918099296877 0.0024340191630966316 -0.01481028944962547 0.0043309281200716544 0.0022609774081259627 -0.057903856879731486 0.012265324510477011 0.029570566627836459 0.058768255858781537 0.0046592648507863431 0.015155308007803884 -0.047861331888747256 -0.056724206102062524 0.061208409743326635 0.0057453501804518728 -0.006049941065922609 0.011635476639620399 -0.0045012957615351542 -0.026735980808003487 0.026344842906794747 -0.029083819099908578 0.043605882773768014 0.046845277334854475 0.064159823381970751 0.0082993344123194063 -0.036947557248100907 0.038290423774879602 0.061149737950966898 0.066742218954631866 0.041929000721989754 -0.075763549971608959 -0.04677343285309804 0.06873651574503295 -0.048627369439225646
leaf_weight=82.976233437657356 32.845729738473892 24.742643401026726 124.96386142075062 232.23950240015984 95.605423077940941 134.64524579048157 156.01936061680317 135.905955478549 110.34640273451805 291.46547897160053 37.160609439015388 20.448751404881477 13.225776016712187 133.38486072421074 6.2085152864456168 5.3239486664533606 80.487886428833008 66.482121184468269 614.07352901995182 75.726958721876144 31.757937774062157 15.951839894056318 102.53503866493702 9.7504820525646192 50.309926345944405 32.62192901968956 178.45309545099735 393.59821508824825 26.927102759480476 8.7290297895669919 43.406538709998131 11.236139446496962 173.84953279793262 39.309522688388824 62.047896072268486 125.96400406956673 18.866282418370247 51.834908559918404 76.260228455066681 93.937543153762817 11.488634869456289 22.890209957957268 92.660758301615715 41.044365242123604 30.979571416974068 37.490351349115372 39.987627670168877 18.985120177268982 78.82375556230545 4.9996046721935263
leaf_count=332 133 99 511 949 387 539 632 566 453 1170 154 82 54 547 25 22 322 269 2472 306 128 64 419 40 207 132 723 1577 108 36 178 46 707 159 249 511 76 212 316 390 47 92 382 168 128 155 160 76 326 20
internal_value=0.000215994 -0.0323943 0.022991 0.0141071 0.00155018 -0.0495267 -0.00150018 0.0585428 0.0108711 -0.0416242 0.0380417 -0.0563267 0.00154088 0.0305196 -0.0374718 0.0499383 -0.0833578 -0.0128897 -0.0107971 -0.0127014 -0.0295849 -0.0489382 0.0243742 0.00101506 0.0416726 0.0128562 0.00853786 -0.05124 -0.0327816 0.0295837 0.0152266 0.0356814 0.0140709 0.0073304 -0.0332402 0.0219213 -0.00935612 0.0426556 0.0510097 0.0564631 0.0365861 -0.0517289 0.0437837 0.0514699 0.0608138 0.0533097 -0.0746056 -0.0666104 0.06679 -0.0799783
internal_weight=4400.98 1809.62 2591.36 2073.5 606.922 1202.7 1255.01 517.855 522.881 975.26 818.488 84.0406 349.163 518.469 59.298 381.949 227.436 162.088 761.956 689.8 369.017 606.243 334.775 15.959 183.695 493.058 334.472 528.243 318.393 173.718 52.1356 121.583 187.075 72.1553 77.9997 158.586 50.6242 229.332 300.019 170.198 136.452 43.339 129.821 92.8793 152.618 68.4699 144.46 58.9727 84.1477 85.4875
internal_count=17856 7289 10567 8432 2468 4821 5068 2135 2130 3911 3364 338 1417 2122 239 1569 910 656 3070 2778 1482 2429 1368 65 754 1998 1355 2116 1278 713 214 499 761 292 313 643 204 938 1242 706 558 174 536 380 631 283 578 236 348 342
is_linear=0
shrinkage=0.05


Tree=4
num_leaves=47
num_cat=0
split_feature=31 10 14 21 8 28 14 14 3 21 11 7 7 4 14 8 2 21 8 20 11 4 16 3 21 14 26 7 3 28 13 3 23 3 3 16 4 2 23 7 21 11 7 3 14 21
split_gain=733.195 112.098 49.312 29.6372 27.8993 31.0259 23.1458 14.4203 14.2598 13.7899 15.071 11.1168 9.60158 9.54827 8.12968 7.11129 6.61755 6.50506 6.53025 6.50505 7.61476 6.47503 6.00676 8.21808 5.96203 9.06678 5.93851 6.9752 5.60446 5.32203 5.30264 5.23871 5.21284 4.52172 4.41539 4.22691 3.75051 3.72613 3.28098 2.34727 1.78584 1.66761 1.80539 1.48025 1.11709 0.0953653
threshold=1.0000000180025095e-35 1.5000000000000002 64.000000000000014 0.42950000000000005 0.41500000000000004 1.0000000180025095e-35 74.000000000000014 34.000000000000007 0.79500000000000015 0.22050000000000003 0.055000000000000007 0.042500000000000003 0.058500000000000003 0.22500000000000003 404.00000000000006 0.25500000000000006 0.75500000000000012 0.98650000000000004 0.26500000000000007 1.0000000180025095e-35 0.075000000000000025 0.58500000000000008 224.19500000000002 0.55500000000000016 0.5465000000000001 64.000000000000014 4.2500000000000009 0.30850000000000005 0.75500000000000012 1.0000000180025095e-35 1.5000000000000002 0.32500000000000007 1.0000000180025095e-35 0.55500000000000016 0.74500000000000011 196.81000000000003 0.30500000000000005 0.56500000000000006 1.0000000180025095e-35 0.056500000000000009 0.067500000000000018 0.37500000000000006 0.16350000000000003 0.71500000000000008 354.00000000000006 0.012500000000000002
decision_type=2 2 2 2 2 2 2 2 2 2 2 2 2 2 2 2 2 2 2 2 2 2 2 2 2 2 2 2 2 2 2 2 2 2 2 2 2 2 2 2 2 2 2 2 2 2
left_child=2 9 7 4 8 6 -6 30 15 11 26 40 43 37 24 -4 -10 18 -9 39 31 -7 23 -13 34 -26 32 -28 -24 -22 -1 -21 -11 -15 -14 -20 -32 -12 -38 -5 -2 -16 -43 44 45 -3
right_child=1 12 3 19 5 21 -8 17 16 10 13 22 14 33 41 -17 -18 -19 35 20 29 -23 28 -25 25 -27 27 -29 -30 -31 36 -33 -34 -35 -36 -37 38 -39 -40 -41 -42 42 -44 -45 -46 -47
leaf_value=-0.013943150063445656 0.082331995374314987 0.058033287799165147 -0.046059651067230076 -0.015145706655946778 0.0047877719611196948 -0.012594508660489796 -0.023222581452325784 -0.048994488262553183 0.024275837431810849 0.011972837247461315 -0.059582552094283141 -0.0077364737612021957 0.037657759175370994 0.022341023201981364 0.08201005201385185 -0.029944582965046946 -0.03675542466588308 0.04274759383574453 -0.0069834291331018336 0.027673621355461742 -0.0016352996077969848 -0.0012104277399356876 0.018881707584431903 0.011551163116801757 0.016241734768324367 0.049976902045439774 0.012441400658491402 0.061995594018861726 -0.009944718546745137 0.015947027729679583 0.074040213721179998 -0.019051732431860868 0.047265511294728377 0.011525551634045944 0.022600448452467874 0.0056702840352415504 0.066169624697143728 -0.0051266633264389558 0.021827839058176347 -0.065008202463083795 0.036110890226337594 0.071835230862949698 0.030286205221888986 0.041932247701456871 0.042418561782553994 0.07445738651273949
leaf_weight=6.6111816167831412 4.8268178105354291 6.6428961604833594 90.461090341210365 4.9567193090915662 78.501744776964188 239.20856513082981 1141.3260530382395 7.4764864742755881 16.122017443180088 12.678125619888304 4.9292338490486136 119.36628511548042 376.60662195086479 191.9641826748848 12.906230852007868 311.84179370105267 5.9806533753871909 7.8186793476343146 164.1623969823122 6.422711730003356 131.09597326815128 263.58257347345352 113.53089207410812 102.49946372210979 23.035734966397285 180.6310547888279 43.614328548312187 8.5238279402255994 19.492378085851669 63.669934406876564 5.1002857834100714 66.489101350307465 76.210012525320053 201.33056990802288 58.643771052360535 109.89843548834324 4.8958249390125266 9.0482907146215421 33.624434664845467 5.2260632216930389 5.1017115116119385 6.3985450863838178 5.7515504956245422 8.3925812542438489 5.2360241860151282 27.580556616187096
leaf_count=27 20 28 363 20 319 965 4598 30 65 52 20 487 1563 786 54 1253 24 32 667 26 530 1065 464 419 96 752 179 35 80 258 21 269 313 825 243 447 20 37 138 21 21 27 24 35 22 116
internal_value=0.000210616 0.0268649 -0.0154552 -0.0179544 -0.0199432 -0.0171059 -0.0214156 0.0023759 -0.031441 0.0152586 0.0202759 0.00770057 0.041742 0.0153691 0.0401498 -0.0335912 0.00744532 -0.0019039 -0.00317642 -0.00256713 -0.00104839 -0.0066379 0.00621597 0.00115286 0.0390235 0.0461957 0.03439 0.0207417 0.0146158 0.00409203 0.0270835 -0.014835 0.042307 0.0168215 0.0356461 -0.00189083 0.0334336 -0.0249728 0.0277498 -0.041606 0.0596771 0.0683998 0.0529829 0.0636009 0.0679655 0.0715934
internal_weight=4389.41 1624.94 2764.47 2424.88 2147.02 1722.62 1219.83 339.588 424.406 913.116 548.299 364.818 711.826 407.272 663.974 402.303 22.1027 289.356 281.537 277.861 267.678 502.791 354.889 221.866 638.917 203.667 141.026 52.1382 133.023 194.766 50.2317 72.9118 88.8881 393.295 435.25 274.061 43.6205 13.9775 38.5203 10.1828 9.92853 25.0563 12.1501 47.8521 39.4595 34.2235
internal_count=17856 6698 11158 9776 8652 6947 4917 1382 1705 3738 2247 1491 2960 1668 2759 1616 89 1176 1144 1124 1083 2030 1450 906 2654 848 579 214 544 788 206 295 365 1611 1806 1114 179 57 158 41 41 105 51 201 166 144
is_linear=0
shrinkage=0.05


Tree=5
num_leaves=57
num_cat=0
split_feature=33 6 33 6 33 33 33 10 33 33 33 10 6 21 33 15 11 22 21 8 21 0 2 15 21 27 5 4 23 21 33 4 14 21 8 15 33 27 23 33 9 0 10 32 15 4 11 19 14 8 33 32 23 0 2 21
split_gain=1156.55 405.549 282.679 187.61 154.005 131.694 75.4896 40.5871 40.151 30.925 30.0583 27.9591 24.4784 16.1993 15.7443 12.7006 12.2927 10.8038 9.88094 9.07001 8.41356 8.34845 8.3037 7.30088 7.24417 7.09832 6.97468 6.93021 6.79385 6.58003 6.54304 6.53039 6.16846 7.14792 6.53396 6.00023 5.73739 5.35511 5.91661 5.29957 5.28639 5.15929 4.5903 4.53131 8.38179 4.64798 4.2492 4.12275 3.59427 3.49696 2.9026 2.31627 2.06427 1.83771 1.79422 1.29265
threshold=0.47809523809523813 1.0000000180025095e-35 0.64852941176470602 1.0000000180025095e-35 0.31009615384615391 0.25543478260869573 0.82575757575757591 1.5000000000000002 1.0000000180025095e-35 0.16025641025641027 0.38675213675213682 1.5000000000000002 1.0000000180025095e-35 0.24450000000000002 0.58114035087719318 0.95050000000000001 0.25000000000000006 12.500000000000002 0.34750000000000003 0.59500000000000008 0.5465000000000001 176.02500000000003 0.75500000000000012 1.8710000000000002 0.58450000000000013 1.0000000180025095e-35 15.500000000000002 0.63500000000000012 4.5000000000000009 0.46050000000000008 0.70294117647058829 0.64500000000000013 164.00000000000003 0.42950000000000005 0.72500000000000009 3.9050000000000007 0.58957219251336912 1.0000000180025095e-35 1.0000000180025095e-35 0.95000000000000007 168.50000000000003 193.28500000000003 1.5000000000000002 0.88823447809883593 0.50300000000000011 0.23500000000000001 0.16500000000000004 1.0000000180025095e-35 54.000000000000007 0.53500000000000014 0.07417582417582419 0.94670304913103198 1.0000000180025095e-35 307.18500000000006 0.78500000000000014 0.19050000000000003
decision_type=2 2 2 2 2 2 2 2 2 2 2 2 2 2 2 2 2 2 2 2 2 2 2 2 2 2 2 2 2 2 2 2 2 2 2 2 2 2 2 2 2 2 2 2 2 2 2 2 2 2 2 2 2 2 2 2
left_child=1 4 3 14 9 8 12 18 -3 50 20 13 23 21 19 40 41 -15 26 25 35 -7 -17 30 -21 -2 -5 -18 -25 47 -4 -22 33 -13 -34 -6 -20 38 -11 52 -12 -10 48 44 -9 -45 -39 -16 -14 -31 -1 -44 53 -8 -52 -54
right_child=2 5 6 7 10 11 39 43 16 37 15 32 42 17 29 22 27 -19 36 24 31 -23 -24 28 -26 -27 -28 -29 -30 49 -32 -33 34 -35 -36 -37 -38 46 -40 -41 -42 -43 51 45 -46 -47 -48 -49 -50 -51 54 -53 55 -55 -56 -57
leaf_value=-0.093086089089039509 -0.0081424629985841143 -0.097097512661428256 0.026210510237453379 0.047553464502224141 -0.045963091221024259 0.03158845227662864 0.018526511283199518 0.023925585115317075 0 -0.043906839881860567 -0.0026097959190276711 0.009354083167478381 0.019896060865686641 0.041116309131629711 0.010922692149495004 -0.038886196344619345 -0.013396408006719651 0.0087117469120339529 0.023659924515359081 -0.0013298523508712854 -0.029115824499018669 -0.012664472017618632 -0.014346713172690172 0.02291409802679761 0.03517093144152008 -0.023572821342974212 0.0093298849314446073 0.04246198560381198 -0.02147232464144249 0.041359416230663873 0.040335428384162139 0.026453398561837895 0.03834907594842818 0.035155654072926951 -0.0093334077082073454 -2.5090638460215854e-05 0.044835963258839373 -0.033900444322552709 -0.064552362616093012 0.080533210390144563 -0.019991063125744255 -0.041225118078175048 0.051088641461682155 0.010527887062779415 0.050472047809606846 0.055269461821035142 -0.06105013074578141 -0.0016360153917112982 0.047221941715946979 0.0067827386957855732 -0.081367680873390746 0.066173623224429823 0.059133110919018177 0.06190373924034185 -0.054582956091590799 0.0764186817226256
leaf_weight=83.052106902003288 340.86335305869579 25.230424016714096 167.85974851250648 12.945666119456289 308.67680129408836 11.548174321651457 5.508934557437895 50.556674718856812 8.183646231889723 43.716706171631813 53.30785721540451 72.644668683409691 14.365418836474417 31.136399060487747 115.05757880210876 152.92887049913406 22.559263169765476 150.73899544775486 113.90762281417847 180.3293364495039 25.450533881783489 119.8260041475296 45.631123870611191 34.393062502145767 14.588644206523893 96.169685542583466 154.28653979301453 7.2540356516838065 11.299555927515028 19.162171632051471 168.79387989640236 6.4917395114898673 113.60413889586926 43.300735160708427 7.4546627700328818 7.4988524466752997 46.043641611933708 38.47348727285862 238.81213013827801 127.33643500506878 263.41020649671555 75.058118522167206 62.313220709562302 6.4059964269399634 76.729992642998695 137.75422875583172 25.231313183903694 149.74820373952389 118.20221416652203 12.479884266853331 41.91046766936779 55.838651791214943 35.040669724345207 5.2591426521539688 9.977174445986746 24.618349567055702
leaf_count=334 1371 101 682 53 1235 47 23 212 33 175 214 301 60 127 466 613 93 614 469 725 102 487 183 140 59 387 632 30 46 78 694 26 474 180 31 30 191 154 956 541 1057 302 264 27 323 580 101 605 493 51 168 237 146 22 40 103
internal_value=-7.29439e-05 -0.0277078 0.0237538 0.0109782 -0.0436874 0.00349138 0.0472246 0.0328018 -0.0401012 -0.0663635 -0.0310379 0.0144611 0.0387732 0.00463554 -0.00309024 -0.0233402 -0.0272626 0.0143063 0.0209057 -0.00755313 -0.0424076 -0.00871541 -0.033282 0.0307633 0.00139305 -0.011554 0.0123454 0.000124166 0.0118054 0.00640596 0.0333173 -0.0176189 0.0274191 0.019055 0.0353663 -0.0448897 0.0298111 -0.0583695 -0.0613922 0.0742201 -0.0170831 -0.0371196 0.0509511 0.0471093 0.0399944 0.0533246 -0.0448107 0.00380391 0.0443157 0.0279439 -0.0867792 0.05831 0.0626367 0.0405467 -0.0764285 0.0664656
internal_weight=4390.97 2033.11 2357.86 1527.03 1344.57 688.539 830.829 598.63 138.285 481.173 863.396 550.254 633.066 313.25 928.399 515.278 113.055 181.875 327.183 631.951 348.118 131.374 198.56 382.346 194.918 437.033 167.232 29.8133 45.6926 296.448 336.654 31.9423 237.004 115.945 121.059 316.176 159.951 346.234 282.529 197.764 316.718 83.2418 250.72 271.447 127.287 144.16 63.7048 264.806 132.568 31.6421 134.94 118.152 70.4271 10.7681 51.8876 59.659
internal_count=17888 8208 9680 6229 5388 2820 3451 2487 559 1928 3460 2261 2616 1275 3742 2067 458 741 1345 2542 1393 534 796 1562 784 1758 685 123 186 1200 1376 128 986 481 505 1265 660 1386 1131 835 1271 335 1054 1142 535 607 255 1071 553 129 542 501 294 45 208 249
is_linear=0
shrinkage=0.05


Tree=6
num_leaves=55
num_cat=0
split_feature=33 6 33 6 33 33 33 33 10 33 33 6 10 21 33 33 10 21 21 21 26 21 21 2 7 33 19 22 23 21 7 14 7 26 33 33 13 27 23 10 13 14 26 2 9 7 33 7 33 7 7 19 10 2
split_gain=1047.66 366.206 259.767 170.887 140.574 119.932 71.3222 41.1873 37.6202 28.8681 27.2011 22.9415 18.0622 14.9679 14.7555 14.2126 12.9769 9.02893 7.75825 7.60475 7.52501 7.2352 7.15914 8.50475 6.97657 6.3329 6.26401 6.25925 6.17661 5.97876 5.95626 5.79542 5.5347 5.30818 5.22453 5.17256 4.86585 4.84673 5.3603 4.3635 3.91917 3.88495 3.85171 3.5636 3.50946 3.39597 3.29658 3.02864 2.75794 2.14569 2.37366 2.0383 1.93957 1.62945
threshold=0.47809523809523813 1.0000000180025095e-35 0.64852941176470602 1.0000000180025095e-35 0.31009615384615391 0.17914438502673799 0.82575757575757591 0.31414473684210531 1.5000000000000002 0.16025641025641027 0.38675213675213682 1.0000000180025095e-35 1.5000000000000002 0.24650000000000002 1.0000000180025095e-35 0.58114035087719318 1.5000000000000002 0.34750000000000003 0.69550000000000012 0.5465000000000001 4.4500000000000011 0.62250000000000016 0.21650000000000003 0.82500000000000007 0.049500000000000009 0.70294117647058829 1.5000000000000002 21.500000000000004 5.5000000000000009 0.46050000000000008 0.33950000000000008 74.000000000000014 0.086500000000000007 4.5500000000000007 0.56832298136645976 0.95000000000000007 4.5000000000000009 1.0000000180025095e-35 1.0000000180025095e-35 1.5000000000000002 1.5000000000000002 364.00000000000006 4.4500000000000011 0.53500000000000014 573.50000000000011 0.23550000000000001 0.6132478632478634 0.27450000000000008 0.07417582417582419 0.097500000000000017 0.11950000000000001 3.5000000000000004 1.5000000000000002 0.78500000000000014
decision_type=2 2 2 2 2 2 2 2 2 2 2 2 2 2 2 2 2 2 2 2 2 2 2 2 2 2 2 2 2 2 2 2 2 2 2 2 2 2 2 2 2 2 2 2 2 2 2 2 2 2 2 2 2 2
left_child=1 4 3 15 9 14 11 16 17 48 19 25 13 -9 -3 21 40 20 -18 44 -5 28 23 -12 -24 36 -23 -21 -2 32 -19 -14 -17 34 -10 49 -4 38 -11 43 -7 -27 -39 -13 -6 -31 -35 -41 -1 -8 -51 52 -16 -50
right_child=2 5 6 8 10 7 35 12 33 37 22 39 31 -15 51 29 18 30 -20 27 -22 26 24 -25 -26 41 -28 -29 -30 45 -32 -33 -34 46 -36 -37 -38 42 -40 47 -42 -43 -44 -45 -46 -47 -48 -49 53 50 -52 -53 -54 -55
leaf_value=-0.089245089169278091 -0.011047283740873142 -0.092701983959957213 0.014795262768078611 0.0060516503092943076 -0.041460640660301404 -0.0089353882438704558 0.077541564953082037 -0.0053060260209929324 0.035493570260538114 -0.041756662404807049 -0.028571114100198178 0.05379494215262022 0.0040077871609362327 0.018923757243336867 -0.044967194066561973 -0.014404637085905989 -0.0029373249885592898 0.032818901991860799 0.04070438095884777 -0.02902977159056766 0.031724043222866503 0.023187406631223345 0.019844882383950678 -0.0050517087091358145 -0.016310082380319751 0.037174019756664539 -0.011942299284298227 0.022687015563134908 0.0031108815997276038 0.041465925753306827 0.0065826048949102177 0.031504039333514429 0.0065209968157407113 0.06565000233062189 0.051513825085334787 0.0781649448674719 0.03088242414036807 -0.048518851462038728 -0.061437323524174074 0.0625011779058086 -0.030181435033751147 -0.0050589106533533738 -0.015935844126666914 0.036070449951850929 -0.068083724419819219 0.0079265355093224733 0.021287681052163446 0.044745231027916645 -0.077710139633483943 0.019981747667305125 0.058403153509996641 -0.073288948898981396 -0.016130335261329416 -0.052049242939892028
leaf_weight=82.31719371676445 487.27234750986099 25.11271496117115 95.937018170952797 130.12705539166927 302.37259203195572 33.686804965138435 16.066683456301689 109.90896742045879 133.35531432926655 43.675471022725105 329.29838718473911 47.182071462273598 21.91950461268425 150.67644329369068 22.974493563175201 36.467654675245285 47.941123604774475 132.5644356161356 12.773435845971106 24.469524517655376 36.783679366111755 34.343570917844772 14.695565357804297 44.167937383055687 127.55750392377377 182.99332904815674 19.804617002606392 7.4895133525133124 90.828913018107414 17.396176263689998 26.509226337075233 182.44986502826214 228.21979679167271 41.565380558371544 88.389362975955009 124.70421929657459 96.224654421210289 51.907817631959915 238.38855534791946 74.80399426817894 65.77964286506176 5.3751985728740683 11.735539004206656 84.144928649067879 13.742229551076887 14.125063151121138 5.1775969564914694 41.63090293109417 41.698550432920456 4.9759588092565528 48.442616552114487 4.9653926491737357 8.8366458863019961 9.9453500956296903
leaf_count=334 1958 101 390 534 1210 136 68 447 567 175 1319 199 91 616 92 147 198 550 53 98 151 139 59 177 512 757 80 30 365 71 110 765 924 177 376 541 393 208 956 323 265 22 47 354 55 58 22 178 168 21 205 20 36 40
internal_value=-6.4833e-05 -0.0263592 0.022697 0.0104628 -0.0415433 0.00332728 0.0453399 0.00991067 0.0313926 -0.0632562 -0.0294742 0.0371271 0.0174471 0.00868689 -0.0629989 -0.00293459 -0.0119312 0.0199404 0.00621385 -0.0402937 0.0117549 -0.00717218 -0.0221558 -0.0258051 -0.0125286 0.0293704 0.0102483 -0.0167212 -0.00881401 0.0060929 0.028485 0.0285828 0.00361471 0.0452661 0.0419223 0.0718535 0.0228888 -0.0555424 -0.0584235 0.0490036 -0.0230523 0.0359403 -0.0426236 0.0425125 -0.042655 0.0266672 0.0608988 0.0562393 -0.0830692 0.0603584 0.0549616 -0.0423842 -0.0371891 -0.0729752
internal_weight=4375.9 2030.49 2345.41 1522.93 1343.46 687.025 822.482 625.136 594.472 479.668 863.793 628.292 464.955 260.585 61.8892 928.458 160.181 325.984 60.7146 348.074 166.911 632.249 515.719 373.466 142.253 380.53 54.1482 31.959 578.101 296.209 159.074 204.369 264.687 268.488 221.745 194.189 192.162 345.707 282.064 247.762 99.4664 188.369 63.6434 131.327 316.115 31.5212 46.743 116.435 133.961 69.4853 53.4186 36.7765 31.8111 51.6439
internal_count=17888 8208 9680 6229 5388 2820 3451 2571 2487 1928 3460 2616 1919 1063 249 3742 652 1345 251 1393 685 2542 2067 1496 571 1562 219 128 2323 1200 660 856 1071 1142 943 835 783 1386 1131 1054 401 779 255 553 1265 129 199 501 542 294 226 148 128 208
is_linear=0
shrinkage=0.05


Tree=7
num_leaves=55
num_cat=0
split_feature=6 10 14 21 28 4 8 8 21 7 15 15 13 7 26 26 15 15 4 7 3 21 4 15 15 14 21 14 23 3 26 15 7 9 32 2 2 32 9 26 15 21 9 32 32 21 8 9 32 21 15 15 13 2
split_gain=547.666 80.1732 30.4372 24.1954 20.0805 15.6122 15.3926 14.4102 10.7964 11.9623 10.024 10.0012 8.64033 10.6843 8.38452 8.01481 11.3223 8.22189 7.50983 8.25045 6.7753 6.59738 6.45518 6.38626 6.74722 6.1542 5.90204 5.51949 5.2804 5.7378 6.33318 5.89315 5.15823 5.51778 5.02331 4.90199 6.9121 6.15895 4.41585 4.26876 4.23829 4.14071 4.12941 4.0147 3.8829 3.85902 3.69259 3.79644 3.52792 3.39278 2.30571 1.77204 1.36745 0.444448
threshold=1.0000000180025095e-35 1.5000000000000002 74.000000000000014 0.45250000000000007 1.0000000180025095e-35 0.32500000000000007 0.40500000000000008 0.48500000000000004 0.22550000000000003 0.049500000000000009 2.0135000000000001 4.6065000000000014 4.5000000000000009 0.31850000000000006 4.0500000000000007 4.4500000000000011 1.8475000000000004 0.52050000000000007 0.35500000000000004 0.058500000000000003 0.38500000000000006 0.23750000000000002 0.72500000000000009 0.26150000000000007 0.29350000000000004 44.000000000000007 0.12950000000000003 404.00000000000006 3.5000000000000004 0.53500000000000014 4.1500000000000012 0.38550000000000006 0.22150000000000003 243.50000000000003 0.23572232627655751 0.52500000000000013 0.38500000000000006 0.69179816983146614 34.000000000000007 4.5500000000000007 0.28450000000000003 0.16650000000000004 223.50000000000003 0.46073069355318469 0.16243141085506971 0.075500000000000012 0.8650000000000001 258.50000000000006 1.8776130183782527 0.12750000000000003 0.51550000000000018 1.7610000000000001 4.5000000000000009 0.67500000000000016
decision_type=2 2 2 2 2 2 2 2 2 2 2 2 2 2 2 2 2 2 2 2 2 2 2 2 2 2 2 2 2 2 2 2 2 2 2 2 2 2 2 2 2 2 2 2 2 2 2 2 2 2 2 2 2 2
left_child=2 8 7 4 6 14 41 28 9 43 -8 23 13 20 -6 16 -11 -17 35 52 -9 26 -7 48 -25 -23 -14 34 32 31 -31 -30 45 -34 -21 36 49 42 -10 -39 -15 -4 -37 -2 -13 -1 47 -40 -5 -3 -38 -29 53 -20
right_child=1 18 3 11 5 22 10 12 38 15 -12 44 21 40 -16 17 -18 -19 19 27 -22 25 -24 24 -26 -27 -28 51 29 30 -32 -33 33 -35 -36 37 50 39 46 -41 -42 -43 -44 -45 -46 -47 -48 -49 -50 -51 -52 -53 -54 -55
leaf_value=-0.037732311073747915 0.02285060667810938 0.043530613834212917 -0.04163582905880877 0.062952351047078942 -0.013670755493534506 -0.0096040567964628953 -0.017590685887058199 0.015077971033160543 -0.016451360124044533 -0.0050107081536976579 -0.030802288814958934 -0.073438466668060892 0.0066938350699173189 0.0040481093306798293 -0.037810198495066963 0.047798396326153486 0.018123217321913028 0.0093538281785920212 0.059113920840554751 0.078471865242862579 -0.02006138523458904 0.051747873645723544 0.0050783208628709699 -0.056644548212439173 0.00050213484484613576 0.011661627648323278 -0.011844295797123618 0.071048000120332341 0.045624099263753715 -0.067113332402700274 0.00033211371751872134 -0.024374265892300937 -0.067542816919163542 -0.011618192247594014 0.035356819458049471 0.0097638245108010516 0.075065099531771262 0.02052822868595849 0.021104505891854235 0.046926245603904883 0.062988200875470288 -0.021779260300606847 -0.040120413261574367 0.074794384200228117 -0.013323356451719901 0.022463671488652789 -0.023294678329999756 0.010655168962538649 0.0058101026093810397 0.0073365090973617157 0.042712644143909656 0.032295821239655235 0.041415892553598385 0.076810152420993261
leaf_weight=5.4361903667449933 7.9472872912883741 10.852663755416872 110.431785851717 6.1321509927511197 73.563302084803581 490.58573731780052 993.13732062280178 15.815845891833304 8.9881674349307996 206.43509371578693 169.5624635219574 6.1810808777809125 188.87246790528297 6.3924331516027433 72.348517134785652 19.02300463616848 70.967183589935303 53.084359735250473 15.586294189095499 7.02779796719551 94.062960863113403 13.179151132702826 87.797646805644035 5.186886027455329 219.56403335928917 36.519230306148529 55.339995503425598 16.045492351055149 7.183081656694414 6.2050198167562467 7.4422910213470459 4.9386750459671021 16.115970537066463 6.4417459517717353 461.09989374876022 14.609531730413439 11.90147238969803 75.828529551625252 414.79331639409065 19.828996524214745 6.1231287866830826 36.557533502578735 5.6473938375711432 7.8131116032600403 5.1978167295455933 4.9473390132188797 5.0560465008020392 113.16998405754566 5.1756841838359833 16.99217489361763 13.539590507745741 4.5794462710618964 8.2221397459506971 13.038231253623961
leaf_count=22 33 46 444 25 296 1981 4014 65 37 849 684 25 777 26 291 79 291 218 68 30 384 55 356 21 891 150 227 70 29 25 30 20 65 26 1969 62 51 323 1723 85 25 147 24 33 21 20 21 470 21 72 58 20 36 57
internal_value=-5.81537e-05 0.0231882 -0.0135714 -0.0159691 -0.0177651 -0.0110679 -0.0214639 -0.00204423 0.0133889 0.00672016 -0.0195242 -0.00118386 0.00121688 -0.00992531 -0.0256919 0.00477563 0.000893971 0.0196175 0.0359732 0.0389485 -0.0149489 0.00587567 -0.00736616 0.00101122 -0.000819086 0.0224748 0.00246939 0.0371873 -0.025216 -0.00796998 -0.0302347 0.01673 -0.0384909 -0.051915 0.0360314 0.0266837 0.0393484 0.0207897 0.0178717 0.0260958 0.0335511 -0.0367495 -0.00402647 0.0492259 -0.0467691 -0.00863369 0.0184629 0.0188766 0.0375164 0.0217276 0.0582777 0.0628823 0.0620109 0.0675878
internal_weight=4358.51 1602.08 2756.44 2281.42 2033.98 724.295 1309.69 475.016 907.278 365.27 1162.7 247.438 416.305 122.394 145.912 349.51 277.402 72.1074 694.8 525.599 109.879 293.911 578.383 236.059 224.751 49.6984 244.212 488.753 58.7103 25.7691 13.6473 12.1218 32.9412 22.5577 468.128 169.2 53.2859 115.914 542.008 95.6575 12.5156 146.989 20.2569 15.7604 11.3789 10.3835 533.019 527.963 11.3078 27.8448 25.4411 20.6249 36.8467 28.6245
internal_count=17888 6725 11163 9217 8213 2924 5289 1946 3754 1503 4698 1004 1709 500 587 1437 1140 297 2971 2250 449 1209 2337 958 912 205 1004 2089 237 104 55 49 133 91 1999 721 227 494 2251 408 51 591 86 66 46 42 2214 2193 46 118 109 90 161 125
is_linear=0
shrinkage=0.05


Tree=8
num_leaves=54
num_cat=0
split_feature=33 33 31 31 33 33 33 10 33 33 31 33 33 22 10 33 10 21 21 21 21 3 5 28 21 33 15 3 4 3 27 15 33 14 33 26 33 26 4 10 5 4 5 26 8 3 15 32 14 32 21 21 8
split_gain=942.842 329.108 224.762 217.144 86.5841 67.688 67.4586 34.7094 30.7443 22.7216 18.5539 15.7226 13.5649 11.7669 11.942 11.491 10.8769 10.6742 9.80929 9.54496 9.18427 9.02061 8.16364 7.78753 7.14633 7.12004 6.28941 6.26812 6.26687 5.9879 5.93415 5.67583 5.59187 6.98003 5.49069 5.36011 5.12641 5.07151 4.23292 3.77041 3.74519 3.67802 3.53108 3.44169 3.00457 2.53433 2.41081 2.26084 2.05657 1.78126 1.70921 1.43689 0.210594
threshold=0.41421568627450983 0.64852941176470602 1.0000000180025095e-35 1.0000000180025095e-35 0.17914438502673799 0.21825396825396828 0.82575757575757591 1.5000000000000002 0.54006410256410264 0.31414473684210531 1.0000000180025095e-35 0.31009615384615391 1.0000000180025095e-35 12.500000000000002 1.5000000000000002 0.11805555555555557 1.5000000000000002 0.5465000000000001 0.29250000000000004 0.55750000000000022 0.06950000000000002 0.45500000000000007 15.500000000000002 1.0000000180025095e-35 0.69550000000000012 0.47493734335839605 1.8710000000000002 0.80500000000000016 0.57500000000000007 0.60500000000000009 1.0000000180025095e-35 0.58750000000000002 0.56385869565217395 64.000000000000014 0.70294117647058829 4.3500000000000005 0.89444444444444449 3.5500000000000003 0.68500000000000016 1.5000000000000002 84.500000000000014 0.27500000000000008 38.500000000000007 3.8500000000000001 0.76500000000000012 0.66500000000000015 0.18950000000000003 0.94670304913103198 314.00000000000006 0.12240551835207257 0.70250000000000001 0.19050000000000003 0.55500000000000016
decision_type=2 2 2 2 2 2 2 2 2 2 2 2 2 2 2 2 2 2 2 2 2 2 2 2 2 2 2 2 2 2 2 2 2 2 2 2 2 2 2 2 2 2 2 2 2 2 2 2 2 2 2 2 2
left_child=3 2 8 5 12 15 10 18 20 16 26 30 -5 35 -15 52 29 37 22 23 21 -2 -4 -10 -18 -22 34 -28 -20 -6 43 50 33 -9 -3 -11 46 -13 -19 42 -21 -32 -12 -7 49 -33 -8 -41 -34 -17 -14 -48 -1
right_child=1 6 7 4 9 11 36 32 19 13 39 17 31 14 -16 44 24 38 28 40 25 -23 -24 -25 -26 -27 27 -29 -30 -31 41 45 48 -35 -36 -37 -38 -39 -40 47 -42 -43 -44 -45 -46 -47 51 -49 -50 -51 -52 -53 -54
leaf_value=-0.084969901132353198 -0.030224397520519804 0.024339674859013494 0.043051111317581665 -0.08956259528370597 -0.013754583777284056 -0.063565681827380136 0.028030465045759814 0.00547922242476305 -0.0047127849773218296 0.049033646904179821 0.023816126310289145 -0.024894722929194243 -0.028236571680973533 -0.0024782581525168643 0.020889781539197322 -0.03357020542086072 -0.0045293604382243592 -0.016718183466429663 0.031831305246841489 0.042612774238438483 -0.014791768717632214 -0.013377663397442436 0.0066374854035931895 0.0087493092222730474 0.0376441003889059 -0.0018468330748671515 0.017409018739667881 -0.041640382663458507 0.014548585453218982 -0.03995454704536771 -0.06314937433001179 -0.044410189155417473 0.045870681289967387 0.036896174037624345 0.037353012529232336 0.0071312749068294743 0.07555333125855683 -0.038900415002164491 0.027871946888070428 0.045904085900360027 0.012889038667645784 -0.025985584122130062 0.044562749323948964 -0.0486991784906547 -0.024146749445790469 -0.083613420464617963 0.053325477391428358 0.061015468341277496 0.07074404223335462 -0.063764168569226037 0.010775403362722707 0.071675365855606396 -0.064469197096920366
leaf_weight=88.182618945837021 113.99380077421665 166.91282507777214 16.733584463596344 24.934945657849312 66.223745569586754 62.153805270791054 7.1230570673942557 19.60204117000103 259.84699931740761 27.151639088988304 27.655644774436951 82.347933411598206 5.9608256965875608 133.43740870058537 92.130983978509903 6.1914613693952552 47.662345111370087 39.416280046105385 130.77654542028904 18.080810934305191 195.12735407054424 270.16794340312481 191.08682960271835 182.8597105294466 12.583081364631651 235.30217336118221 40.637228906154633 4.9162691682577124 90.356834694743156 33.293792262673378 8.4565528631210309 19.915839150547985 95.001540765166283 230.05884245038033 166.65099760890007 11.065453648567198 126.53598472476006 362.0501317679882 5.9865535646677008 59.992794066667557 27.418435633182526 37.626938536763191 101.86872926354408 135.21962717175484 5.9547348171472541 5.9741858392953864 33.537510916590691 53.421926617622375 10.418535411357878 127.49497018754482 4.9225106090307236 22.656705051660538 5.1146005839109412
leaf_count=363 457 682 69 101 267 250 31 84 1046 113 118 330 24 544 390 25 198 158 546 74 782 1083 785 739 53 946 166 20 377 134 34 80 413 993 694 46 563 1451 24 264 112 151 435 544 24 24 143 237 46 516 20 98 21
internal_value=-5.19098e-05 0.0164183 0.00590617 -0.0329474 -0.00564485 -0.0466525 0.0434272 0.027058 -0.00682046 0.00241058 0.0354384 -0.039168 -0.0609304 0.0114315 0.00704904 -0.0701642 -0.0124505 -0.0339585 0.0174586 0.00309256 -0.0127674 -0.0183962 0.00961283 0.000837153 0.00424407 -0.00772887 0.0284771 0.0108495 0.0248018 -0.0226013 -0.04961 -0.0411898 0.0386322 0.0344527 0.0308655 0.0370819 0.0695438 -0.0363226 -0.0106806 0.046265 0.0248781 -0.0330356 0.0401934 -0.0534358 -0.060851 -0.0539357 0.057355 0.0531136 0.048441 -0.0624293 -0.0101988 0.0609269 -0.0839698
internal_weight=4350.19 2898.74 2086.83 1451.45 485.257 966.196 811.91 784.035 1302.8 423.548 622.056 733.258 61.7083 263.785 225.568 232.938 159.763 489.801 428.954 488.206 814.591 384.162 207.82 442.707 60.2454 430.43 379.117 45.5535 221.133 99.5175 243.457 36.7734 355.081 249.661 333.564 38.2171 189.853 444.398 45.4028 242.939 45.4992 46.0835 129.524 197.373 139.641 25.89 63.3173 113.415 105.42 133.686 10.8833 56.1942 93.2972
internal_count=17888 12003 8552 5885 1994 3891 3451 3313 5239 1745 2616 2942 249 1093 934 949 652 1963 1777 1971 3268 1540 854 1785 251 1728 1562 186 923 401 979 148 1536 1077 1376 159 835 1781 182 1054 186 185 553 794 565 104 272 501 459 541 44 241 384
is_linear=0
shrinkage=0.05


Tree=9
num_leaves=55
num_cat=0
split_feature=33 6 33 6 33 33 33 33 33 33 11 6 11 21 33 15 33 6 3 8 11 7 2 9 32 4 3 33 7 23 15 7 21 21 33 21 26 16 21 3 7 26 23 7 9 15 9 7 4 33 7 15 7 23
split_gain=856.257 272.796 217.805 128.169 118.717 98.9996 64.3153 31.6335 26.3232 22.9789 18.0167 17.5147 16.9898 12.8508 11.6873 11.1672 9.36964 8.05943 7.85057 7.72653 7.6127 7.46362 7.13615 7.10606 6.80254 6.64385 6.30102 7.49412 6.08546 6.08172 5.75569 6.17598 5.47052 5.41996 5.09721 5.04194 5.73501 4.83641 4.63921 6.46854 4.89662 4.58048 6.50593 5.47755 4.4651 4.31534 2.70475 6.4613 3.36027 2.61604 2.10931 3.01371 1.58762 1.28471
threshold=0.47809523809523813 1.0000000180025095e-35 0.64852941176470602 1.0000000180025095e-35 0.31009615384615391 0.26969696969696971 0.82575757575757591 1.0000000180025095e-35 0.16025641025641027 0.38675213675213682 0.19500000000000003 1.0000000180025095e-35 0.32500000000000007 0.25250000000000006 0.58114035087719318 0.95050000000000001 0.28991596638655465 0.15000000000000005 0.40500000000000008 0.59500000000000008 0.16500000000000004 0.048500000000000008 0.75500000000000012 128.50000000000003 1.9054801476622238 0.70500000000000007 0.84500000000000008 0.39642857142857152 0.075500000000000012 1.5000000000000002 1.8710000000000002 0.049500000000000009 0.83950000000000002 0.08950000000000001 0.95000000000000007 0.15750000000000003 4.6500000000000012 399.35000000000008 0.46050000000000008 0.56500000000000006 0.086500000000000007 3.8500000000000001 1.5000000000000002 0.11950000000000001 233.50000000000003 0.27650000000000008 353.50000000000006 0.32050000000000006 0.54500000000000015 0.07417582417582419 0.097500000000000017 0.18950000000000003 0.060500000000000005 3.5000000000000004
decision_type=2 2 2 2 2 2 2 2 2 2 2 2 2 2 2 2 2 2 2 2 2 2 2 2 2 2 2 2 2 2 2 2 2 2 2 2 2 2 2 2 2 2 2 2 2 2 2 2 2 2 2 2 2 2
left_child=1 4 3 14 8 7 11 -3 49 28 13 30 21 17 19 18 -15 -7 -11 24 37 53 -17 -23 -2 -22 27 -12 32 -21 33 -32 -6 -4 50 36 -14 -9 40 -40 -16 42 -10 -43 -37 -30 48 -48 -13 -1 -8 -52 -51 -5
right_child=2 5 6 12 9 10 34 20 41 15 26 46 35 16 38 22 -18 -19 -20 29 25 23 -24 -25 -26 -27 -28 -29 45 -31 31 -33 -34 -35 -36 44 -38 -39 39 -41 -42 43 -44 -45 -46 -47 47 -49 -50 52 51 -53 -54 -55
leaf_value=-0.0824423058046031 -0.0078513043196273193 -0.08613509935924088 0.023189549826002943 0.071449888714583673 -0.026047400046822839 -0.011495884914476832 0.073320337396827071 -0.039017634569178471 -0.040460923263036325 -0.029168148077260321 0.015194351602441479 0.048012904581669215 0.026742845227091246 -0.023134122625618724 -0.012913538968819091 -0.03373206832759712 0.017053809320564908 0.016297329427300979 -0.0094110765100257412 -0.011583313219006602 -0.015782832065413366 0.010709185648186716 -0.011003376434272835 0.025380626473022333 -0.032973224572485159 0.038187181940057005 -0.02044151200853471 0.035895303761998697 -0.056274204762848924 0.0079824354291344237 -0.039111004197896794 0.017190803512154022 0.023798808641198335 0.036153726681843329 0.074021618785579987 0.032219529501021374 0.075073770869561476 0 0.045556918288122299 0 0.0067455401180648578 -0.058052595123696288 -0.066444165463002178 -0.040425520545254057 0.055541475717757249 -0.03658704677955698 0.064125717253680728 0.019450487445690542 0.034152840866648056 -0.03678105080121731 0.014808610576317835 0.054943579623921303 -0.069656814387130603 0.039244070217845456
leaf_weight=79.772770151495934 408.97177927196026 24.641988143324852 170.99759261310101 7.8788741379976255 50.298271432518959 121.98089878261089 15.460334211587904 63.991272792220116 37.599065214395523 63.17635515332222 82.924993470311165 100.4500654488802 72.687467724084854 15.606565430760382 36.540648743510246 153.04990044236183 177.42869430780411 32.960914924740791 254.1835586130619 55.23385526239872 42.192274138331413 122.31011493504047 45.679352834820747 264.53998008370399 28.936402782797813 6.4554052650928488 7.3110126852989188 95.780705735087395 32.863259822130203 139.84894843399525 5.4050019681453696 40.070026248693466 5.9962330758571616 160.69043870270252 118.52757658064365 31.865138649940491 6.8109910488128653 9.2104877978563291 16.692138031125072 14.57645048201084 228.2731739282608 64.489486962556839 78.231061473488808 162.17859165370464 68.812535539269447 257.67405413091183 41.170864880084991 10.637206792831419 87.433248072862625 5.1324046403169623 5.6966747343540183 46.056931033730507 45.549675315618515 7.6706491261720657
leaf_count=334 1642 101 709 34 202 499 68 257 152 253 352 440 317 63 147 613 733 135 1018 222 173 510 183 1116 116 27 31 412 132 562 22 164 24 667 541 141 30 37 69 60 924 261 317 656 306 1035 185 47 382 21 25 201 187 33
internal_value=-4.65938e-05 -0.0238659 0.0207047 0.00952228 -0.0369912 0.00189509 0.0417561 -0.0344937 -0.057133 -0.0259407 0.0118916 0.0339631 0.0279065 0.00515564 -0.00200196 -0.0192246 0.0137685 -0.00554446 -0.0133678 -0.00584116 -0.023947 0.0221558 -0.028541 0.0207589 -0.00952989 -0.00845495 0.0244561 0.0263313 -0.0359115 0.00241407 0.0271988 0.0103181 -0.0206166 0.0294943 0.0675778 0.040703 0.0310355 -0.0341488 0.00618813 0.0244026 0.00401013 -0.0497807 -0.0580952 -0.045486 0.0482488 -0.0388497 0.0445703 0.0551045 0.0416112 -0.0763446 0.0560472 0.0506593 -0.066505 0.0562344
internal_weight=4330.6 2016.36 2314.25 1511.65 1335.87 680.485 802.596 146.491 472.953 862.921 533.994 616.854 582.576 347.977 929.073 516.089 193.035 154.942 317.36 632.991 121.849 402.4 198.729 386.85 437.908 48.6477 186.017 178.706 346.832 195.083 377.163 45.475 56.2945 331.688 185.742 180.176 79.4985 73.2018 296.082 31.2686 264.814 342.498 115.83 226.668 100.678 290.537 239.691 51.8081 187.883 130.455 67.2139 51.7536 50.6821 15.5495
internal_count=17888 8208 9680 6229 5388 2820 3451 595 1928 3460 2225 2616 2487 1430 3742 2067 796 634 1271 2542 494 1693 796 1626 1758 200 795 764 1393 784 1562 186 226 1376 835 794 347 294 1200 129 1071 1386 469 917 447 1167 1054 232 822 542 294 226 208 67
is_linear=0
shrinkage=0.05


Tree=10
num_leaves=49
num_cat=0
split_feature=33 33 6 6 33 33 33 10 10 6 33 33 33 21 33 21 7 33 13 21 21 32 16 23 7 5 3 33 21 7 7 16 33 22 23 3 10 5 0 22 33 7 33 6 26 5 21 4
split_gain=796.571 231.613 214.565 147.199 88.051 86.8024 56.5167 33.9629 24.35 23.8848 23.3984 18.7648 14.8462 12.3707 9.98232 9.75701 9.43736 8.12541 8.64083 8.05525 7.41744 7.28795 10.9664 6.54843 6.45046 6.16617 6.09027 8.25607 5.94523 5.87074 5.85937 5.82301 5.77911 6.51386 5.65472 5.55072 5.37877 5.31445 5.22198 4.73976 4.91694 4.66785 3.75638 3.12594 2.66396 1.89853 1.83162 1.77832
threshold=0.44722222222222224 0.64495798319327746 1.0000000180025095e-35 1.0000000180025095e-35 0.30602006688963218 0.17914438502673799 0.88194444444444453 1.5000000000000002 1.5000000000000002 1.0000000180025095e-35 0.07417582417582419 0.54772727272727284 0.41421568627450983 0.22550000000000003 1.0000000180025095e-35 0.38350000000000006 0.17250000000000001 0.69615384615384623 4.5000000000000009 0.28350000000000003 0.44450000000000006 1.9054801476622238 -40.594999999999992 1.0000000180025095e-35 0.32750000000000007 35.500000000000007 0.84500000000000008 0.36038961038961043 0.26950000000000007 0.13050000000000003 0.24550000000000002 276.94000000000005 0.36939571150097467 22.500000000000004 4.5000000000000009 0.25500000000000006 1.5000000000000002 29.500000000000004 161.57000000000002 13.500000000000002 0.20714285714285716 0.06950000000000002 0.7633053221288516 0.35000000000000003 3.8500000000000001 44.500000000000007 0.39650000000000007 0.7350000000000001
decision_type=2 2 2 2 2 2 2 2 2 2 2 2 2 2 2 2 2 2 2 2 2 2 2 2 2 2 2 2 2 2 2 2 2 2 2 2 2 2 2 2 2 2 2 2 2 2 2 2
left_child=2 3 4 11 10 14 9 13 12 17 -1 21 19 35 -4 32 34 18 -3 -7 38 22 -2 -15 -14 -23 27 -10 29 -9 -22 -18 41 -34 -17 -5 46 -19 -13 44 -41 -6 43 -11 -12 -44 -16 -30
right_child=1 6 5 7 15 8 -8 28 26 42 39 20 24 23 36 16 31 37 -20 -21 30 25 -24 -25 -26 -27 -28 -29 47 -31 -32 -33 33 -35 -36 -37 -38 -39 -40 40 -42 -43 45 -45 -46 -47 -48 -49
leaf_value=-0.079869551614387219 0.0069048804085117032 0.0083175381290675251 -0.08315766812046399 -0.043968048422829392 -0.01649140553480476 -0.018806101600760114 0.071971459829818202 0.051949793815052062 0.008945834949361452 0.041401714736484949 -0.070821929419020296 0.029674133399353576 0.027656517721459779 0.0027073728781584279 -0.065653757860995546 0.0129090487602447 -0.03721489544382673 0.014974571051898129 0.030323356503634016 -0.00078115716568573151 0.035315873229654231 -0.059137825301965798 -0.010582885726120372 0.027468655737692513 -0.013688613566568281 -0.017172727347098574 -0.025996718674803843 0.028806224487007173 0.049280197100820343 0.027746734341152116 0.0009360277061254709 0.0058435942578319569 -0.02744679702634454 -0.0036139167149438832 -0.027730899917925302 0.0073570774656805341 -0.0075041054056950753 0.036514359985999133 0.00088081609910224126 -0.054956825956525603 -0.040935349265301478 -0.038429933629214028 0.0432861863234376 0.067599042508389398 -0.052692508940010631 0.064126175975838987 -0.037651023916917908 0.03001418488897133
leaf_weight=79.444759547710419 109.66549190878868 91.570797458291054 23.800601720809937 5.3372448831796637 28.823875412344933 111.67172665894032 120.41811920702457 31.974679335951805 97.465299695730209 187.97979679703712 36.441252052783966 16.33854253590107 46.235299646854401 31.611325472593307 13.707622125744821 37.174035772681236 36.414077460765839 34.582074299454689 88.599000722169876 140.53528706729412 32.143258154392242 11.731833323836325 482.46191447973251 190.37882229685783 11.602108687162398 36.683496296405792 7.3554387837648383 115.58444003760815 116.25039273500443 131.53257830440998 20.634440883994102 9.726721063256262 367.56112468242645 31.660347312688828 10.975948736071585 150.58729138970375 9.3815266788005811 201.69595476984978 388.91711714863777 106.91470432281494 171.91811722517014 198.77364137768745 18.77386911213398 13.045342832803724 63.020165413618088 41.947077915072441 13.47947698831558 15.608749553561209
leaf_count=339 440 375 99 22 116 451 564 143 409 838 149 66 191 133 55 149 146 146 366 573 132 47 1936 803 48 147 31 498 520 577 85 39 1474 127 44 621 38 852 1569 440 698 801 84 58 257 189 54 70
internal_value=0.000238168 0.0180124 -0.025576 0.00793174 -0.0379006 -0.000974102 0.0403681 0.0263395 0.00548649 0.0347396 -0.0550628 -0.00334658 -0.00353242 0.0163819 -0.0577397 -0.0269936 -0.0118912 0.0272596 0.0191775 -0.00878631 0.00437331 -0.00887447 -0.00733499 0.023968 0.0192671 -0.0275456 0.0181919 0.0197525 0.0390532 0.0325392 0.0219962 -0.0280368 -0.0292551 -0.0255706 0.00350314 0.00554114 -0.0408784 0.0333906 0.00206103 -0.0498202 -0.0463474 -0.035682 0.0466065 0.0431594 -0.0594496 0.0578468 -0.052142 0.047062
internal_weight=4340.14 2570.47 1769.67 1771.86 1178.85 590.819 798.612 673.281 530.45 678.194 457.739 1098.58 310.044 377.915 60.3692 721.11 94.2908 416.448 180.17 252.207 458.033 640.543 592.127 221.99 57.8374 48.4153 220.405 213.05 295.366 163.507 52.7777 46.1408 626.819 399.221 48.15 155.925 36.5686 236.278 405.256 378.294 278.833 227.598 261.746 201.025 99.4614 60.7209 27.1871 131.859
internal_count=18009 10783 7226 7311 4779 2447 3472 2889 2201 2908 1883 4422 1263 1579 246 2896 378 1739 741 1024 1852 2570 2376 936 239 194 938 907 1310 720 217 185 2518 1601 193 643 147 998 1635 1544 1138 917 1169 896 406 273 109 590
is_linear=0
shrinkage=0.05


end of trees

feature_importances:
user_category_accept_rate=112
item_popularity_score=67
user_cuisine_affinity=43
price_ratio=31
candidate_price=25
beverage_affinity=23
user_item_affinity=23
n_items_in_cart=23
embedding_variance=23
dessert_affinity=21
affinity_match=21
avg_rating=18
price_sensitivity=15
cart_aov_utilization=15
day_of_week=14
user_historical_aov=13
cart_value=11
anchor_cuisine_enc=10
aov_headroom=10
total_orders_lifetime=8
candidate_category_enc=7
user_ordered_this_before=7
hour_of_day=6
is_chain=5
is_beverage=4
meal_time_enc=2
city_tier_enc=2
is_extension=2
price_match=1
budget_safe=1
candidate_is_veg=1

parameters:
[boosting: gbdt]
[objective: binary]
[metric: auc]
[tree_learner: serial]
[device_type: cpu]
[data_sample_strategy: bagging]
[data: ]
[valid: ]
[num_iterations: 1000]
[learning_rate: 0.05]
[num_leaves: 63]
[num_threads: 0]
[seed: 42]
[deterministic: 0]
[force_col_wise: 0]
[force_row_wise: 0]
[histogram_pool_size: -1]
[max_depth: 6]
[min_data_in_leaf: 20]
[min_sum_hessian_in_leaf: 0.001]
[bagging_fraction: 0.8]
[pos_bagging_fraction: 1]
[neg_bagging_fraction: 1]
[bagging_freq: 5]
[bagging_seed: 400]
[bagging_by_query: 0]
[feature_fraction: 0.8]
[feature_fraction_bynode: 1]
[feature_fraction_seed: 30056]
[extra_trees: 0]
[extra_seed: 12879]
[early_stopping_round: 0]
[early_stopping_min_delta: 0]
[first_metric_only: 0]
[max_delta_step: 0]
[lambda_l1: 0.1]
[lambda_l2: 0.1]
[linear_lambda: 0]
[min_gain_to_split: 0]
[drop_rate: 0.1]
[max_drop: 50]
[skip_drop: 0.5]
[xgboost_dart_mode: 0]
[uniform_drop: 0]
[drop_seed: 17869]
[top_rate: 0.2]
[other_rate: 0.1]
[min_data_per_group: 100]
[max_cat_threshold: 32]
[cat_l2: 10]
[cat_smooth: 10]
[max_cat_to_onehot: 4]
[top_k: 20]
[monotone_constraints: ]
[monotone_constraints_method: basic]
[monotone_penalty: 0]
[feature_contri: ]
[forcedsplits_filename: ]
[refit_decay_rate: 0.9]
[cegb_tradeoff: 1]
[cegb_penalty_split: 0]
[cegb_penalty_feature_lazy: ]
[cegb_penalty_feature_coupled: ]
[path_smooth: 0]
[interaction_constraints: ]
[verbosity: -1]
[saved_feature_importance_type: 0]
[use_quantized_grad: 0]
[num_grad_quant_bins: 4]
[quant_train_renew_leaf: 0]
[stochastic_rounding: 1]
[linear_tree: 0]
[max_bin: 255]
[max_bin_by_feature: ]
[min_data_in_bin: 3]
[bin_construct_sample_cnt: 200000]
[data_random_seed: 175]
[is_enable_sparse: 1]
[enable_bundle: 1]
[use_missing: 1]
[zero_as_missing: 0]
[feature_pre_filter: 1]
[pre_partition: 0]
[two_round: 0]
[header: 0]
[label_column: ]
[weight_column: ]
[group_column: ]
[ignore_column: ]
[categorical_feature: ]
[forcedbins_filename: ]
[precise_float_parser: 0]
[parser_config_file: ]
[objective_seed: 16083]
[num_class: 1]
[is_unbalance: 0]
[scale_pos_weight: 1]
[sigmoid: 1]
[boost_from_average: 1]
[reg_sqrt: 0]
[alpha: 0.9]
[fair_c: 1]
[poisson_max_delta_step: 0.7]
[tweedie_variance_power: 1.5]
[lambdarank_truncation_level: 30]
[lambdarank_norm: 1]
[label_gain: ]
[lambdarank_position_bias_regularization: 0]
[eval_at: ]
[multi_error_top_k: 1]
[auc_mu_weights: ]
[num_machines: 1]
[local_listen_port: 12400]
[time_out: 120]
[machine_list_filename: ]
[machines: ]
[gpu_platform_id: -1]
[gpu_device_id: -1]
[gpu_use_dp: 0]
[num_gpu: 1]

end of parameters

pandas_categorical:[]
